//Numpy array shape [32, 16]
//Min -1.546875000000
//Max 1.328125000000
//Number of zeros 55

#ifndef W14_H_
#define W14_H_

#ifndef __SYNTHESIS__
weight14_t w14[512];
#else
weight14_t w14[512] = {-0.281250, 0.109375, -0.078125, -0.046875, -0.078125, -0.218750, 0.062500, -0.062500, -0.046875, -0.218750, -0.046875, -0.031250, -0.109375, -0.046875, 0.140625, 0.203125, 0.078125, -0.187500, 0.015625, 0.109375, 0.171875, 0.000000, 0.171875, -0.109375, -0.234375, -0.093750, -0.203125, 0.140625, -0.078125, 0.234375, 0.171875, 0.000000, 0.281250, 0.015625, -0.250000, -0.125000, 0.234375, 0.125000, -0.062500, 0.093750, -0.265625, 0.187500, -0.078125, 0.078125, -0.171875, -0.250000, 0.125000, 0.187500, -0.218750, 0.093750, -0.218750, 0.187500, -0.250000, 0.078125, 0.093750, 0.218750, -0.312500, -0.203125, 0.312500, -0.093750, -0.281250, 0.406250, 0.250000, 0.000000, 0.234375, -0.156250, -0.031250, -0.062500, 0.265625, -0.109375, -0.078125, 0.078125, -0.187500, -0.312500, -0.296875, -0.187500, -0.234375, -0.281250, 0.000000, 0.093750, 0.125000, 0.531250, -0.390625, 0.000000, -0.609375, -0.234375, 0.640625, -0.218750, 0.062500, 0.031250, 0.125000, 0.156250, -0.453125, 0.953125, 0.000000, -0.671875, 0.000000, 0.296875, -0.515625, -0.203125, 0.000000, 0.000000, 0.406250, 0.250000, -0.125000, 0.078125, 0.609375, -0.218750, -0.296875, 0.000000, 0.328125, -0.531250, -0.015625, 0.000000, -0.421875, 0.000000, -0.484375, -0.375000, 0.375000, -0.765625, 0.000000, 0.062500, 0.375000, -0.171875, 0.000000, 1.125000, 0.187500, -0.437500, 0.171875, 0.531250, -0.234375, -0.281250, -0.109375, 0.140625, 0.453125, -0.171875, 0.171875, 0.140625, 0.000000, -0.156250, -0.281250, 0.781250, -0.093750, 0.000000, 0.078125, -0.406250, 0.671875, -0.203125, -0.312500, 0.515625, -0.671875, -0.875000, 0.437500, -0.015625, 0.125000, -0.234375, 0.750000, 0.000000, 0.000000, 0.843750, 0.218750, -0.281250, -0.046875, 0.046875, 0.250000, 0.156250, 0.187500, 0.078125, -0.015625, 0.171875, 0.203125, 0.203125, 0.125000, 0.000000, -0.281250, -0.093750, -0.078125, 0.234375, 0.421875, -0.265625, 0.046875, 0.171875, 0.031250, -0.218750, -0.140625, -0.312500, 0.171875, 0.093750, -0.062500, 0.234375, 0.218750, 0.343750, -0.187500, 0.140625, 0.031250, 0.125000, 0.468750, 0.046875, -0.109375, 0.406250, 0.390625, -0.265625, -0.031250, 0.015625, -0.343750, 0.375000, 0.093750, -0.171875, -0.875000, 0.281250, -0.015625, -0.171875, -0.234375, -0.359375, 0.000000, 0.000000, 0.000000, -0.078125, 1.218750, 0.218750, 0.000000, 0.734375, -0.109375, 0.000000, -0.046875, -0.187500, 0.265625, -0.218750, 0.140625, -0.156250, 0.171875, 0.000000, 0.250000, 0.250000, 0.156250, -0.203125, -0.125000, -0.140625, -0.218750, -0.218750, 0.000000, 0.078125, -0.125000, -0.062500, 0.000000, -0.312500, 0.062500, -1.281250, 0.406250, 0.265625, 0.750000, -0.203125, 0.000000, 0.343750, -0.375000, 0.562500, 0.218750, 0.296875, -0.140625, 0.140625, -0.359375, 0.015625, -0.218750, 0.062500, 0.265625, 0.031250, -0.250000, 0.187500, 0.031250, -0.281250, -0.234375, 0.000000, 0.000000, 1.265625, 0.203125, -0.218750, 0.453125, 0.515625, 0.203125, -0.968750, 1.093750, -0.328125, 0.187500, 0.250000, -0.546875, 0.000000, -1.156250, 0.000000, -0.625000, -0.156250, 0.125000, -0.140625, 0.421875, -0.250000, -0.625000, 0.125000, 0.187500, -0.218750, 0.546875, -0.125000, 0.406250, -0.296875, 0.000000, 0.390625, -0.156250, 0.187500, 0.171875, -0.046875, 0.265625, -0.187500, -0.171875, 0.109375, -0.203125, 0.140625, 0.171875, -0.171875, -0.062500, -0.109375, 0.156250, -0.062500, 0.000000, -0.062500, -0.625000, 0.000000, 0.062500, -0.703125, 0.578125, 0.265625, -0.625000, 0.000000, 0.468750, -0.140625, 0.000000, 0.453125, 0.000000, -0.546875, -0.265625, -0.031250, 0.156250, 0.031250, 0.140625, -0.265625, 0.015625, -0.250000, -0.296875, -0.281250, 0.171875, -0.140625, 0.265625, -0.187500, -0.171875, 0.031250, -0.593750, -0.515625, 0.000000, -0.203125, 0.078125, -0.187500, -0.109375, 0.343750, -0.015625, 0.078125, 0.000000, -0.156250, 0.484375, -0.171875, 0.375000, 0.000000, 0.000000, -0.109375, 0.234375, -0.093750, -0.296875, 0.171875, -0.093750, -0.015625, 0.187500, 0.156250, -0.125000, 0.062500, -0.093750, 0.203125, 0.156250, -0.203125, -0.515625, -1.109375, 0.968750, -0.312500, -0.437500, 0.406250, -0.328125, 0.562500, 0.000000, -0.312500, -0.406250, 0.109375, 0.937500, -0.750000, -0.406250, 0.812500, 0.187500, 0.078125, 0.187500, -0.156250, 0.343750, -0.046875, 0.062500, 0.000000, -0.265625, 0.078125, -0.218750, -0.187500, 0.265625, -0.156250, 0.328125, 0.093750, -0.015625, -0.390625, 0.609375, 0.062500, 0.218750, 0.781250, 0.000000, 0.578125, -0.156250, -0.265625, -0.703125, -0.140625, 0.578125, -0.390625, 0.000000, 0.546875, 0.312500, 0.593750, 0.296875, 0.187500, -0.281250, 0.250000, 0.218750, 0.218750, 0.000000, 0.109375, -0.687500, -0.015625, 0.078125, 0.546875, 0.265625, 0.000000, 0.421875, 1.031250, -0.328125, -0.250000, 0.531250, 0.250000, 0.328125, -0.171875, 0.640625, -0.140625, 0.250000, 0.171875, -1.046875, 1.109375, 0.250000, -0.921875, 0.234375, 0.906250, -0.375000, 0.234375, 0.046875, 0.203125, 0.328125, -1.546875, 0.484375, -0.281250, 0.281250, -0.234375, -0.453125, 0.562500, 0.000000, 0.765625, 0.531250, 1.328125, 0.000000, -0.140625, 0.609375, -0.250000, 0.250000, 0.171875, 0.734375, -0.265625, 0.265625, -0.093750, -0.843750, 0.750000, 0.000000, -0.750000, 0.000000, -0.265625, 0.171875, -0.312500, 0.375000, 0.625000, -0.640625, 0.718750, 0.515625, -0.281250, 0.000000, 0.000000, 0.375000, -0.156250, 0.000000, 0.140625};

#endif

#endif
