//Numpy array shape [10, 10]
//Min -0.859375000000
//Max 1.265625000000
//Number of zeros 10

#ifndef W17_H_
#define W17_H_

#ifndef __SYNTHESIS__
weight17_t w17[100];
#else
weight17_t w17[100] = {-0.859375, -0.109375, -0.156250, 0.968750, 0.484375, 0.468750, 0.000000, 0.562500, 0.015625, 1.265625, -0.015625, -0.078125, 0.109375, -0.281250, 0.000000, -0.453125, -0.234375, 0.203125, -0.359375, -0.234375, -0.359375, -0.171875, -0.390625, -0.109375, -0.250000, 0.625000, -0.046875, 0.171875, -0.187500, 0.546875, 0.000000, -0.421875, -0.187500, 0.078125, 0.281250, 0.359375, 0.703125, -0.500000, 0.000000, 0.468750, 0.640625, -0.468750, -0.281250, 0.265625, -0.562500, -0.812500, 0.281250, 0.000000, -0.359375, -0.031250, 0.343750, -0.406250, 0.390625, -0.453125, 0.156250, -0.250000, -0.265625, -0.031250, -0.375000, 0.000000, 0.000000, 0.312500, -0.031250, 0.500000, 0.250000, 0.500000, -0.140625, 0.328125, 0.578125, 0.250000, 0.531250, -0.296875, -0.218750, -0.515625, 0.062500, 0.546875, 0.593750, 0.328125, -0.531250, -0.031250, -0.140625, -0.406250, 0.000000, 0.078125, -0.203125, 0.531250, -0.140625, 0.312500, 0.234375, 1.062500, -0.078125, 0.000000, 0.171875, -0.250000, 0.515625, -0.250000, 0.781250, 0.312500, 0.437500, 0.000000};

#endif

#endif
