//Numpy array shape [16, 8]
//Min -2.218750000000
//Max 1.484375000000
//Number of zeros 13

#ifndef W19_H_
#define W19_H_

#ifndef __SYNTHESIS__
weight19_t w19[128];
#else
weight19_t w19[128] = {0.953125, 0.000000, 0.296875, -1.000000, -0.187500, -0.671875, 0.156250, -1.750000, 0.125000, 0.281250, 0.421875, 0.484375, 0.000000, -0.453125, -2.187500, 0.000000, -0.343750, -1.234375, -0.781250, -1.296875, 0.421875, 0.484375, 0.781250, 1.312500, 0.359375, -0.312500, 0.281250, -0.312500, -0.109375, 0.187500, 0.281250, -0.078125, -1.984375, -0.625000, 0.000000, -0.562500, 1.140625, 1.234375, 0.375000, 0.390625, -0.078125, -0.656250, 0.140625, -1.406250, -0.140625, 0.000000, 0.843750, 0.578125, 0.796875, 0.781250, 0.734375, 0.468750, -0.843750, -0.421875, -0.218750, -1.609375, -0.968750, -0.453125, 0.000000, -0.890625, 0.500000, 0.578125, 1.234375, -2.218750, -0.906250, -0.234375, 0.000000, 0.000000, 0.828125, 0.781250, -1.875000, 1.265625, -0.125000, 0.187500, 0.078125, -0.234375, 0.375000, 0.000000, 0.203125, -0.453125, 0.000000, -0.140625, 0.000000, 1.406250, -0.890625, -0.531250, -1.203125, 0.015625, -0.359375, 0.406250, -0.250000, -0.171875, 0.000000, 0.328125, -0.234375, 0.281250, 0.609375, -0.625000, -1.406250, -0.453125, -1.484375, -1.187500, 1.484375, 0.328125, 0.375000, 0.187500, -0.234375, 0.453125, -0.484375, -0.343750, -2.218750, -0.109375, 0.906250, -0.375000, -0.218750, 0.203125, -0.796875, -0.812500, 0.296875, -0.796875, -0.218750, -0.578125, 0.000000, -0.484375, -1.046875, -1.109375, 1.062500, 0.859375};

#endif

#endif
