//Numpy array shape [1, 20, 10]
//Min -0.640625000000
//Max 0.687500000000
//Number of zeros 24

#ifndef W25_H_
#define W25_H_

#ifndef __SYNTHESIS__
weight25_t w25[200];
#else
weight25_t w25[200] = {0.015625, -0.468750, -0.203125, 0.046875, -0.062500, -0.031250, 0.031250, 0.328125, -0.046875, 0.593750, -0.046875, -0.125000, 0.031250, 0.453125, -0.046875, -0.343750, 0.421875, 0.000000, -0.531250, -0.187500, 0.000000, 0.390625, 0.187500, 0.062500, 0.296875, -0.250000, 0.265625, 0.187500, 0.250000, 0.234375, 0.281250, -0.031250, 0.218750, -0.093750, 0.421875, -0.109375, -0.062500, 0.000000, 0.031250, -0.078125, -0.031250, 0.000000, 0.359375, 0.000000, 0.000000, 0.218750, 0.000000, -0.031250, 0.015625, 0.000000, -0.203125, 0.375000, 0.328125, 0.218750, 0.453125, 0.265625, -0.031250, -0.093750, 0.312500, -0.140625, 0.187500, -0.640625, 0.375000, 0.062500, 0.312500, -0.109375, 0.281250, -0.093750, 0.031250, 0.125000, 0.265625, 0.015625, -0.453125, 0.234375, -0.359375, -0.156250, -0.125000, 0.281250, 0.015625, 0.234375, 0.125000, -0.078125, 0.046875, -0.109375, -0.312500, -0.343750, 0.375000, -0.265625, 0.031250, 0.062500, -0.218750, 0.078125, -0.500000, -0.453125, -0.218750, 0.125000, 0.218750, -0.437500, -0.140625, 0.234375, -0.359375, 0.000000, -0.500000, -0.562500, -0.234375, -0.203125, 0.265625, -0.406250, -0.093750, 0.312500, -0.406250, 0.328125, 0.359375, 0.421875, 0.171875, 0.156250, 0.062500, -0.312500, -0.421875, -0.281250, -0.187500, -0.265625, 0.046875, 0.187500, -0.031250, 0.046875, 0.171875, -0.125000, 0.531250, 0.156250, -0.234375, -0.312500, 0.031250, 0.218750, -0.031250, 0.062500, 0.203125, -0.093750, 0.687500, 0.203125, 0.000000, 0.000000, -0.031250, 0.000000, 0.000000, 0.000000, 0.000000, -0.093750, 0.000000, 0.000000, 0.562500, 0.437500, 0.203125, 0.000000, 0.343750, -0.203125, -0.250000, -0.250000, 0.343750, 0.093750, 0.453125, 0.000000, 0.171875, 0.062500, -0.109375, -0.109375, -0.203125, -0.296875, 0.171875, -0.218750, -0.109375, -0.031250, 0.000000, -0.453125, 0.031250, 0.187500, -0.203125, 0.000000, 0.375000, -0.062500, 0.078125, 0.109375, -0.531250, -0.031250, 0.359375, 0.000000, -0.015625, 0.015625, -0.046875, 0.000000, 0.015625, 0.156250, 0.140625, 0.000000, 0.140625, 0.046875, -0.125000, -0.171875, -0.031250, 0.031250};

#endif

#endif
